<?xml version="1.0"?>
<opencv_storage>
<!-- Created using Computer Vision System Toolbox(tm) for MATLAB(R) -->
<!-- Version 9.0.0.341360 (R2016a) -->
<!-- Compatible with OpenCV 2.4 -->
<cascade>
  <stageType>BOOST</stageType>
  <featureType>HOG</featureType>
  <height>32</height>
  <width>48</width>
  <stageParams>
    <boostType>GAB</boostType>
    <minHitRate>9.9500000476837158e-01</minHitRate>
    <maxFalseAlarm>5.0000000000000000e-01</maxFalseAlarm>
    <weightTrimRate>9.4999999999999996e-01</weightTrimRate>
    <maxDepth>1</maxDepth>
    <maxWeakCount>100</maxWeakCount></stageParams>
  <featureParams>
    <maxCatCount>0</maxCatCount>
    <featSize>36</featSize></featureParams>
  <stageNum>19</stageNum>
  <stages>
    <!-- stage 0 -->
    <_>
      <maxWeakCount>10</maxWeakCount>
      <stageThreshold>-1.7831346988677979e+00</stageThreshold>
      <weakClassifiers>
        <_>
          <internalNodes>
            0 -1 676 5.6590564548969269e-02</internalNodes>
          <leafValues>
            -7.5046902894973755e-01 3.6200156807899475e-01</leafValues></_>
        <_>
          <internalNodes>
            0 -1 222 6.0495520010590553e-03</internalNodes>
          <leafValues>
            4.5268449187278748e-01 -5.2255570888519287e-01</leafValues></_>
        <_>
          <internalNodes>
            0 -1 639 2.4376356974244118e-02</internalNodes>
          <leafValues>
            -4.6539342403411865e-01 4.1491135954856873e-01</leafValues></_>
        <_>
          <internalNodes>
            0 -1 522 2.7893681079149246e-02</internalNodes>
          <leafValues>
            -5.9680068492889404e-01 2.4644523859024048e-01</leafValues></_>
        <_>
          <internalNodes>
            0 -1 690 2.6684533804655075e-02</internalNodes>
          <leafValues>
            -2.6735979318618774e-01 4.8835945129394531e-01</leafValues></_>
        <_>
          <internalNodes>
            0 -1 645 1.2966774404048920e-02</internalNodes>
          <leafValues>
            3.9563050866127014e-01 -3.1940269470214844e-01</leafValues></_>
        <_>
          <internalNodes>
            0 -1 290 5.5070050060749054e-02</internalNodes>
          <leafValues>
            -2.3023378849029541e-01 3.6399510502815247e-01</leafValues></_>
        <_>
          <internalNodes>
            0 -1 357 1.6042105853557587e-02</internalNodes>
          <leafValues>
            -2.3477159440517426e-01 3.6329561471939087e-01</leafValues></_>
        <_>
          <internalNodes>
            0 -1 94 3.8747170474380255e-03</internalNodes>
          <leafValues>
            3.4558054804801941e-01 -2.1386924386024475e-01</leafValues></_>
        <_>
          <internalNodes>
            0 -1 402 3.7680625915527344e-02</internalNodes>
          <leafValues>
            -1.3799528777599335e-01 5.2601575851440430e-01</leafValues></_></weakClassifiers></_>
    <!-- stage 1 -->
    <_>
      <maxWeakCount>14</maxWeakCount>
      <stageThreshold>-1.8149012327194214e+00</stageThreshold>
      <weakClassifiers>
        <_>
          <internalNodes>
            0 -1 383 5.4653827100992203e-02</internalNodes>
          <leafValues>
            -7.3237091302871704e-01 1.1304347962141037e-01</leafValues></_>
        <_>
          <internalNodes>
            0 -1 639 3.3186018466949463e-02</internalNodes>
          <leafValues>
            -4.0032348036766052e-01 5.5720913410186768e-01</leafValues></_>
        <_>
          <internalNodes>
            0 -1 164 5.1263412460684776e-03</internalNodes>
          <leafValues>
            4.0609517693519592e-01 -3.7390503287315369e-01</leafValues></_>
        <_>
          <internalNodes>
            0 -1 552 3.0945913866162300e-02</internalNodes>
          <leafValues>
            -5.4828006029129028e-01 2.1635803580284119e-01</leafValues></_>
        <_>
          <internalNodes>
            0 -1 392 2.0958393812179565e-02</internalNodes>
          <leafValues>
            -3.2970744371414185e-01 3.6981984972953796e-01</leafValues></_>
        <_>
          <internalNodes>
            0 -1 458 3.2744985073804855e-02</internalNodes>
          <leafValues>
            -3.7322953343391418e-01 2.2204084694385529e-01</leafValues></_>
        <_>
          <internalNodes>
            0 -1 43 3.1878329813480377e-02</internalNodes>
          <leafValues>
            -1.6493213176727295e-01 4.6970039606094360e-01</leafValues></_>
        <_>
          <internalNodes>
            0 -1 543 1.6630023717880249e-02</internalNodes>
          <leafValues>
            -6.6358441114425659e-01 9.7317948937416077e-02</leafValues></_>
        <_>
          <internalNodes>
            0 -1 192 1.1736884713172913e-02</internalNodes>
          <leafValues>
            2.7253490686416626e-01 -3.2850512862205505e-01</leafValues></_>
        <_>
          <internalNodes>
            0 -1 403 2.8970010578632355e-02</internalNodes>
          <leafValues>
            3.7003779411315918e-01 -2.4288314580917358e-01</leafValues></_>
        <_>
          <internalNodes>
            0 -1 379 2.4817429948598146e-03</internalNodes>
          <leafValues>
            5.4842293262481689e-01 -1.1823241412639618e-01</leafValues></_>
        <_>
          <internalNodes>
            0 -1 62 5.0604917109012604e-02</internalNodes>
          <leafValues>
            -1.0541228950023651e-01 6.4647912979125977e-01</leafValues></_>
        <_>
          <internalNodes>
            0 -1 454 2.0901832729578018e-02</internalNodes>
          <leafValues>
            1.4605444669723511e-01 -4.7924724221229553e-01</leafValues></_>
        <_>
          <internalNodes>
            0 -1 560 1.5747670084238052e-02</internalNodes>
          <leafValues>
            -6.2407553195953369e-01 1.0093525052070618e-01</leafValues></_></weakClassifiers></_>
    <!-- stage 2 -->
    <_>
      <maxWeakCount>25</maxWeakCount>
      <stageThreshold>-1.6980125904083252e+00</stageThreshold>
      <weakClassifiers>
        <_>
          <internalNodes>
            0 -1 639 1.7968762665987015e-02</internalNodes>
          <leafValues>
            -7.5188916921615601e-01 3.1267143785953522e-02</leafValues></_>
        <_>
          <internalNodes>
            0 -1 388 6.3491366803646088e-02</internalNodes>
          <leafValues>
            -4.4381532073020935e-01 2.4810411036014557e-01</leafValues></_>
        <_>
          <internalNodes>
            0 -1 310 1.5141790732741356e-02</internalNodes>
          <leafValues>
            -3.1267336010932922e-01 3.1691250205039978e-01</leafValues></_>
        <_>
          <internalNodes>
            0 -1 191 3.8584668654948473e-03</internalNodes>
          <leafValues>
            4.2164438962936401e-01 -2.4682213366031647e-01</leafValues></_>
        <_>
          <internalNodes>
            0 -1 4 5.2097279578447342e-02</internalNodes>
          <leafValues>
            -1.5169866383075714e-01 5.7567328214645386e-01</leafValues></_>
        <_>
          <internalNodes>
            0 -1 323 3.1546242535114288e-02</internalNodes>
          <leafValues>
            2.9502776265144348e-01 -2.5252455472946167e-01</leafValues></_>
        <_>
          <internalNodes>
            0 -1 552 4.3002489954233170e-02</internalNodes>
          <leafValues>
            -3.5435205698013306e-01 2.0899687707424164e-01</leafValues></_>
        <_>
          <internalNodes>
            0 -1 62 4.2898878455162048e-02</internalNodes>
          <leafValues>
            -1.5290609002113342e-01 4.7051966190338135e-01</leafValues></_>
        <_>
          <internalNodes>
            0 -1 512 2.2444587200880051e-02</internalNodes>
          <leafValues>
            -4.9557012319564819e-01 1.3464146852493286e-01</leafValues></_>
        <_>
          <internalNodes>
            0 -1 408 2.8680145740509033e-02</internalNodes>
          <leafValues>
            -3.6422172188758850e-01 1.6599476337432861e-01</leafValues></_>
        <_>
          <internalNodes>
            0 -1 391 4.2070485651493073e-02</internalNodes>
          <leafValues>
            -1.4356568455696106e-01 4.1762053966522217e-01</leafValues></_>
        <_>
          <internalNodes>
            0 -1 18 2.4138279259204865e-02</internalNodes>
          <leafValues>
            -1.7087234556674957e-01 3.3292528986930847e-01</leafValues></_>
        <_>
          <internalNodes>
            0 -1 220 6.7632528953254223e-03</internalNodes>
          <leafValues>
            2.5548860430717468e-01 -2.2533755004405975e-01</leafValues></_>
        <_>
          <internalNodes>
            0 -1 404 1.9468061625957489e-02</internalNodes>
          <leafValues>
            -1.6473309695720673e-01 3.1017369031906128e-01</leafValues></_>
        <_>
          <internalNodes>
            0 -1 675 2.9840510338544846e-02</internalNodes>
          <leafValues>
            8.9246936142444611e-02 -6.5024209022521973e-01</leafValues></_>
        <_>
          <internalNodes>
            0 -1 88 6.8145871162414551e-02</internalNodes>
          <leafValues>
            -7.7331885695457458e-02 7.4740153551101685e-01</leafValues></_>
        <_>
          <internalNodes>
            0 -1 13 1.1630910634994507e-01</internalNodes>
          <leafValues>
            -8.8071919977664948e-02 4.5427879691123962e-01</leafValues></_>
        <_>
          <internalNodes>
            0 -1 596 3.1112793833017349e-02</internalNodes>
          <leafValues>
            -1.1557164043188095e-01 3.5443261265754700e-01</leafValues></_>
        <_>
          <internalNodes>
            0 -1 521 7.0047238841652870e-03</internalNodes>
          <leafValues>
            -6.2696266174316406e-01 6.5904952585697174e-02</leafValues></_>
        <_>
          <internalNodes>
            0 -1 126 4.3422020971775055e-03</internalNodes>
          <leafValues>
            2.7404892444610596e-01 -1.6330854594707489e-01</leafValues></_>
        <_>
          <internalNodes>
            0 -1 23 3.5812906920909882e-02</internalNodes>
          <leafValues>
            -1.5288546681404114e-01 2.6627850532531738e-01</leafValues></_>
        <_>
          <internalNodes>
            0 -1 207 2.3337025195360184e-02</internalNodes>
          <leafValues>
            1.1999218165874481e-01 -3.4806722402572632e-01</leafValues></_>
        <_>
          <internalNodes>
            0 -1 284 3.4112870693206787e-02</internalNodes>
          <leafValues>
            2.2213166952133179e-01 -1.8085861206054688e-01</leafValues></_>
        <_>
          <internalNodes>
            0 -1 588 2.0293043926358223e-02</internalNodes>
          <leafValues>
            -4.6687221527099609e-01 1.0367166996002197e-01</leafValues></_>
        <_>
          <internalNodes>
            0 -1 49 3.1414993107318878e-02</internalNodes>
          <leafValues>
            2.1371908485889435e-01 -2.6326406002044678e-01</leafValues></_></weakClassifiers></_>
    <!-- stage 3 -->
    <_>
      <maxWeakCount>35</maxWeakCount>
      <stageThreshold>-1.7497484683990479e+00</stageThreshold>
      <weakClassifiers>
        <_>
          <internalNodes>
            0 -1 63 4.6398125588893890e-02</internalNodes>
          <leafValues>
            -5.0510013103485107e-01 2.6178011298179626e-01</leafValues></_>
        <_>
          <internalNodes>
            0 -1 163 5.9217414818704128e-03</internalNodes>
          <leafValues>
            2.6159933209419250e-01 -3.8430136442184448e-01</leafValues></_>
        <_>
          <internalNodes>
            0 -1 676 4.3799541890621185e-02</internalNodes>
          <leafValues>
            -5.1985502243041992e-01 1.7562454938888550e-01</leafValues></_>
        <_>
          <internalNodes>
            0 -1 404 9.9696535617113113e-03</internalNodes>
          <leafValues>
            -3.8080626726150513e-01 2.9104724526405334e-01</leafValues></_>
        <_>
          <internalNodes>
            0 -1 290 5.9991706162691116e-02</internalNodes>
          <leafValues>
            -2.2536142170429230e-01 2.9956075549125671e-01</leafValues></_>
        <_>
          <internalNodes>
            0 -1 358 1.9314628094434738e-02</internalNodes>
          <leafValues>
            -2.3318277299404144e-01 3.2011759281158447e-01</leafValues></_>
        <_>
          <internalNodes>
            0 -1 686 1.0115643590688705e-01</internalNodes>
          <leafValues>
            -1.5618792176246643e-01 4.7473257780075073e-01</leafValues></_>
        <_>
          <internalNodes>
            0 -1 690 2.4493608623743057e-02</internalNodes>
          <leafValues>
            -2.5644275546073914e-01 2.8526842594146729e-01</leafValues></_>
        <_>
          <internalNodes>
            0 -1 451 2.3190211504697800e-02</internalNodes>
          <leafValues>
            -2.4282801151275635e-01 2.4301737546920776e-01</leafValues></_>
        <_>
          <internalNodes>
            0 -1 447 2.2459968924522400e-02</internalNodes>
          <leafValues>
            1.5613929927349091e-01 -3.0987831950187683e-01</leafValues></_>
        <_>
          <internalNodes>
            0 -1 356 1.8131323158740997e-02</internalNodes>
          <leafValues>
            -2.3152226209640503e-01 1.8758653104305267e-01</leafValues></_>
        <_>
          <internalNodes>
            0 -1 495 1.3072727248072624e-02</internalNodes>
          <leafValues>
            1.7878134548664093e-01 -2.7233687043190002e-01</leafValues></_>
        <_>
          <internalNodes>
            0 -1 673 4.0385168045759201e-02</internalNodes>
          <leafValues>
            6.0631163418292999e-02 -6.9740676879882813e-01</leafValues></_>
        <_>
          <internalNodes>
            0 -1 335 1.2493758462369442e-02</internalNodes>
          <leafValues>
            2.0027786493301392e-01 -2.0735380053520203e-01</leafValues></_>
        <_>
          <internalNodes>
            0 -1 433 1.0747550427913666e-01</internalNodes>
          <leafValues>
            8.0554023385047913e-02 -5.7093763351440430e-01</leafValues></_>
        <_>
          <internalNodes>
            0 -1 655 4.7561269253492355e-02</internalNodes>
          <leafValues>
            -3.1406897306442261e-01 1.3293223083019257e-01</leafValues></_>
        <_>
          <internalNodes>
            0 -1 638 3.8377292454242706e-02</internalNodes>
          <leafValues>
            -1.1236739903688431e-01 4.4580236077308655e-01</leafValues></_>
        <_>
          <internalNodes>
            0 -1 145 1.8863023724406958e-03</internalNodes>
          <leafValues>
            3.5478761792182922e-01 -1.1407680064439774e-01</leafValues></_>
        <_>
          <internalNodes>
            0 -1 665 9.6520092338323593e-03</internalNodes>
          <leafValues>
            -6.5204256772994995e-01 6.2955155968666077e-02</leafValues></_>
        <_>
          <internalNodes>
            0 -1 192 1.1841423809528351e-02</internalNodes>
          <leafValues>
            1.3528741896152496e-01 -2.8916302323341370e-01</leafValues></_>
        <_>
          <internalNodes>
            0 -1 215 4.1991278529167175e-02</internalNodes>
          <leafValues>
            -5.7403627783060074e-02 7.2586929798126221e-01</leafValues></_>
        <_>
          <internalNodes>
            0 -1 559 1.7767969518899918e-02</internalNodes>
          <leafValues>
            -1.5000011026859283e-01 2.5325372815132141e-01</leafValues></_>
        <_>
          <internalNodes>
            0 -1 342 1.1244849860668182e-01</internalNodes>
          <leafValues>
            -9.1840252280235291e-02 4.2984268069267273e-01</leafValues></_>
        <_>
          <internalNodes>
            0 -1 402 3.7959266453981400e-02</internalNodes>
          <leafValues>
            -8.8739596307277679e-02 4.1481247544288635e-01</leafValues></_>
        <_>
          <internalNodes>
            0 -1 413 3.4800797700881958e-02</internalNodes>
          <leafValues>
            -3.6047685146331787e-01 1.2759512662887573e-01</leafValues></_>
        <_>
          <internalNodes>
            0 -1 88 6.0930106788873672e-02</internalNodes>
          <leafValues>
            -7.2623431682586670e-02 5.6347709894180298e-01</leafValues></_>
        <_>
          <internalNodes>
            0 -1 124 1.8405055161565542e-03</internalNodes>
          <leafValues>
            3.3848500251770020e-01 -1.0182333737611771e-01</leafValues></_>
        <_>
          <internalNodes>
            0 -1 345 3.8978200405836105e-02</internalNodes>
          <leafValues>
            2.1228913962841034e-01 -1.8495155870914459e-01</leafValues></_>
        <_>
          <internalNodes>
            0 -1 9 2.3363478481769562e-02</internalNodes>
          <leafValues>
            -2.1526280045509338e-01 1.7872337996959686e-01</leafValues></_>
        <_>
          <internalNodes>
            0 -1 543 8.8088996708393097e-03</internalNodes>
          <leafValues>
            -8.2325339317321777e-01 4.6650350093841553e-02</leafValues></_>
        <_>
          <internalNodes>
            0 -1 354 2.2410372272133827e-02</internalNodes>
          <leafValues>
            2.4194163084030151e-01 -1.6188593208789825e-01</leafValues></_>
        <_>
          <internalNodes>
            0 -1 155 5.4320599883794785e-03</internalNodes>
          <leafValues>
            2.5215730071067810e-01 -1.5670445561408997e-01</leafValues></_>
        <_>
          <internalNodes>
            0 -1 305 4.7261029481887817e-02</internalNodes>
          <leafValues>
            1.4542669057846069e-01 -2.4445733428001404e-01</leafValues></_>
        <_>
          <internalNodes>
            0 -1 547 8.0962367355823517e-03</internalNodes>
          <leafValues>
            -7.1381515264511108e-01 5.0899077206850052e-02</leafValues></_>
        <_>
          <internalNodes>
            0 -1 302 1.4047201722860336e-02</internalNodes>
          <leafValues>
            1.4873275160789490e-01 -2.6183921098709106e-01</leafValues></_></weakClassifiers></_>
    <!-- stage 4 -->
    <_>
      <maxWeakCount>34</maxWeakCount>
      <stageThreshold>-1.5768064260482788e+00</stageThreshold>
      <weakClassifiers>
        <_>
          <internalNodes>
            0 -1 4 3.7330470979213715e-02</internalNodes>
          <leafValues>
            -5.1980197429656982e-01 1.2462005764245987e-01</leafValues></_>
        <_>
          <internalNodes>
            0 -1 631 5.2455853670835495e-02</internalNodes>
          <leafValues>
            -3.4054377675056458e-01 2.9912734031677246e-01</leafValues></_>
        <_>
          <internalNodes>
            0 -1 417 1.0175071656703949e-02</internalNodes>
          <leafValues>
            2.6242375373840332e-01 -3.2760983705520630e-01</leafValues></_>
        <_>
          <internalNodes>
            0 -1 17 1.7136774957180023e-02</internalNodes>
          <leafValues>
            -2.6752322912216187e-01 2.7815467119216919e-01</leafValues></_>
        <_>
          <internalNodes>
            0 -1 690 1.5478191897273064e-02</internalNodes>
          <leafValues>
            -3.4106859564781189e-01 2.1865543723106384e-01</leafValues></_>
        <_>
          <internalNodes>
            0 -1 686 7.0889785885810852e-02</internalNodes>
          <leafValues>
            -2.5861969590187073e-01 3.0702137947082520e-01</leafValues></_>
        <_>
          <internalNodes>
            0 -1 50 4.7883041203022003e-02</internalNodes>
          <leafValues>
            -1.1165130883455276e-01 4.9951291084289551e-01</leafValues></_>
        <_>
          <internalNodes>
            0 -1 345 2.8890101239085197e-02</internalNodes>
          <leafValues>
            2.4612966179847717e-01 -1.9129325449466705e-01</leafValues></_>
        <_>
          <internalNodes>
            0 -1 574 7.6468302868306637e-03</internalNodes>
          <leafValues>
            -7.8026884794235229e-01 7.1758702397346497e-02</leafValues></_>
        <_>
          <internalNodes>
            0 -1 222 2.4062076117843390e-03</internalNodes>
          <leafValues>
            2.8184974193572998e-01 -1.7499144375324249e-01</leafValues></_>
        <_>
          <internalNodes>
            0 -1 303 1.5820834785699844e-02</internalNodes>
          <leafValues>
            1.6427695751190186e-01 -2.7440670132637024e-01</leafValues></_>
        <_>
          <internalNodes>
            0 -1 640 2.0121617242693901e-02</internalNodes>
          <leafValues>
            -3.7033087015151978e-01 1.3885714113712311e-01</leafValues></_>
        <_>
          <internalNodes>
            0 -1 259 2.2550811991095543e-02</internalNodes>
          <leafValues>
            9.8599165678024292e-02 -3.6128926277160645e-01</leafValues></_>
        <_>
          <internalNodes>
            0 -1 358 8.3178188651800156e-03</internalNodes>
          <leafValues>
            -3.0541127920150757e-01 1.2167754024267197e-01</leafValues></_>
        <_>
          <internalNodes>
            0 -1 145 2.0809739362448454e-03</internalNodes>
          <leafValues>
            3.7299257516860962e-01 -1.2974759936332703e-01</leafValues></_>
        <_>
          <internalNodes>
            0 -1 517 4.2871177196502686e-02</internalNodes>
          <leafValues>
            4.6979565173387527e-02 -7.2288852930068970e-01</leafValues></_>
        <_>
          <internalNodes>
            0 -1 464 3.6852132529020309e-02</internalNodes>
          <leafValues>
            -1.1148691177368164e-01 3.6132788658142090e-01</leafValues></_>
        <_>
          <internalNodes>
            0 -1 412 2.2480836138129234e-02</internalNodes>
          <leafValues>
            -5.2938675880432129e-01 7.3780186474323273e-02</leafValues></_>
        <_>
          <internalNodes>
            0 -1 339 3.5043478012084961e-02</internalNodes>
          <leafValues>
            -1.0488476604223251e-01 3.7170702219009399e-01</leafValues></_>
        <_>
          <internalNodes>
            0 -1 588 2.2431651130318642e-02</internalNodes>
          <leafValues>
            -3.6292567849159241e-01 9.8127342760562897e-02</leafValues></_>
        <_>
          <internalNodes>
            0 -1 537 3.5117365419864655e-02</internalNodes>
          <leafValues>
            6.5480507910251617e-02 -5.5393522977828979e-01</leafValues></_>
        <_>
          <internalNodes>
            0 -1 454 1.6882296651601791e-02</internalNodes>
          <leafValues>
            9.7386315464973450e-02 -3.3641698956489563e-01</leafValues></_>
        <_>
          <internalNodes>
            0 -1 402 3.1599350273609161e-02</internalNodes>
          <leafValues>
            -1.1647853255271912e-01 3.1426841020584106e-01</leafValues></_>
        <_>
          <internalNodes>
            0 -1 589 7.6849111355841160e-03</internalNodes>
          <leafValues>
            -7.6123225688934326e-01 4.3190997093915939e-02</leafValues></_>
        <_>
          <internalNodes>
            0 -1 248 5.6605242192745209e-02</internalNodes>
          <leafValues>
            -6.3246846199035645e-02 6.8520987033843994e-01</leafValues></_>
        <_>
          <internalNodes>
            0 -1 379 5.5385346058756113e-04</internalNodes>
          <leafValues>
            5.7730400562286377e-01 -4.3335035443305969e-02</leafValues></_>
        <_>
          <internalNodes>
            0 -1 450 1.1455280706286430e-02</internalNodes>
          <leafValues>
            -2.8382378816604614e-01 1.0913412272930145e-01</leafValues></_>
        <_>
          <internalNodes>
            0 -1 461 2.9396275058388710e-02</internalNodes>
          <leafValues>
            -3.4598931670188904e-01 9.0866483747959137e-02</leafValues></_>
        <_>
          <internalNodes>
            0 -1 625 7.6460168929770589e-04</internalNodes>
          <leafValues>
            -5.9914267063140869e-01 4.6437464654445648e-02</leafValues></_>
        <_>
          <internalNodes>
            0 -1 354 1.3794587925076485e-02</internalNodes>
          <leafValues>
            3.1736850738525391e-01 -9.7295805811882019e-02</leafValues></_>
        <_>
          <internalNodes>
            0 -1 53 2.1749768406152725e-02</internalNodes>
          <leafValues>
            8.3655893802642822e-02 -3.5707840323448181e-01</leafValues></_>
        <_>
          <internalNodes>
            0 -1 369 2.7624232694506645e-02</internalNodes>
          <leafValues>
            -1.1755280941724777e-01 2.7238461375236511e-01</leafValues></_>
        <_>
          <internalNodes>
            0 -1 293 6.7672640085220337e-02</internalNodes>
          <leafValues>
            -4.1653923690319061e-02 6.8273711204528809e-01</leafValues></_>
        <_>
          <internalNodes>
            0 -1 631 8.0388970673084259e-03</internalNodes>
          <leafValues>
            -7.3096948862075806e-01 4.7592479735612869e-02</leafValues></_></weakClassifiers></_>
    <!-- stage 5 -->
    <_>
      <maxWeakCount>44</maxWeakCount>
      <stageThreshold>-1.5340086221694946e+00</stageThreshold>
      <weakClassifiers>
        <_>
          <internalNodes>
            0 -1 4 5.8343142271041870e-02</internalNodes>
          <leafValues>
            -4.5054945349693298e-01 2.2711864113807678e-01</leafValues></_>
        <_>
          <internalNodes>
            0 -1 613 4.8637367784976959e-02</internalNodes>
          <leafValues>
            -2.5621029734611511e-01 2.5669857859611511e-01</leafValues></_>
        <_>
          <internalNodes>
            0 -1 336 2.9030766338109970e-02</internalNodes>
          <leafValues>
            -1.4103868603706360e-01 4.4125244021415710e-01</leafValues></_>
        <_>
          <internalNodes>
            0 -1 686 5.1670957356691360e-02</internalNodes>
          <leafValues>
            -3.7269192934036255e-01 1.5380017459392548e-01</leafValues></_>
        <_>
          <internalNodes>
            0 -1 392 1.8176451325416565e-02</internalNodes>
          <leafValues>
            -2.9160964488983154e-01 2.6663622260093689e-01</leafValues></_>
        <_>
          <internalNodes>
            0 -1 219 5.7766027748584747e-03</internalNodes>
          <leafValues>
            1.9424520432949066e-01 -2.7046224474906921e-01</leafValues></_>
        <_>
          <internalNodes>
            0 -1 357 1.1812712997198105e-02</internalNodes>
          <leafValues>
            -2.7853429317474365e-01 2.4275767803192139e-01</leafValues></_>
        <_>
          <internalNodes>
            0 -1 255 1.5942046418786049e-02</internalNodes>
          <leafValues>
            8.9894831180572510e-02 -3.6893218755722046e-01</leafValues></_>
        <_>
          <internalNodes>
            0 -1 403 2.3524381220340729e-02</internalNodes>
          <leafValues>
            3.5538545250892639e-01 -1.0198444873094559e-01</leafValues></_>
        <_>
          <internalNodes>
            0 -1 484 6.5436281263828278e-02</internalNodes>
          <leafValues>
            3.8894664496183395e-02 -7.7646398544311523e-01</leafValues></_>
        <_>
          <internalNodes>
            0 -1 414 1.4162141829729080e-02</internalNodes>
          <leafValues>
            -2.3818390071392059e-01 1.6484950482845306e-01</leafValues></_>
        <_>
          <internalNodes>
            0 -1 498 5.5027738213539124e-02</internalNodes>
          <leafValues>
            -2.6607638597488403e-01 1.6530586779117584e-01</leafValues></_>
        <_>
          <internalNodes>
            0 -1 127 4.4272090308368206e-03</internalNodes>
          <leafValues>
            2.1090331673622131e-01 -1.8336495757102966e-01</leafValues></_>
        <_>
          <internalNodes>
            0 -1 461 1.1135560274124146e-01</internalNodes>
          <leafValues>
            6.8953037261962891e-02 -5.9430855512619019e-01</leafValues></_>
        <_>
          <internalNodes>
            0 -1 34 1.7082430422306061e-02</internalNodes>
          <leafValues>
            2.8824669122695923e-01 -1.4953725039958954e-01</leafValues></_>
        <_>
          <internalNodes>
            0 -1 449 5.9125300496816635e-02</internalNodes>
          <leafValues>
            -5.8527566492557526e-02 6.3230127096176147e-01</leafValues></_>
        <_>
          <internalNodes>
            0 -1 184 6.8503879010677338e-03</internalNodes>
          <leafValues>
            2.0736292004585266e-01 -1.6793918609619141e-01</leafValues></_>
        <_>
          <internalNodes>
            0 -1 400 7.3741719126701355e-02</internalNodes>
          <leafValues>
            1.2284560501575470e-01 -2.8091982007026672e-01</leafValues></_>
        <_>
          <internalNodes>
            0 -1 548 1.8195725977420807e-02</internalNodes>
          <leafValues>
            8.7032489478588104e-02 -3.2328557968139648e-01</leafValues></_>
        <_>
          <internalNodes>
            0 -1 458 1.4914568513631821e-02</internalNodes>
          <leafValues>
            -5.5819880962371826e-01 5.2055757492780685e-02</leafValues></_>
        <_>
          <internalNodes>
            0 -1 29 3.3514402806758881e-02</internalNodes>
          <leafValues>
            -1.1678989231586456e-01 2.7875378727912903e-01</leafValues></_>
        <_>
          <internalNodes>
            0 -1 143 1.5991041436791420e-03</internalNodes>
          <leafValues>
            3.0212149024009705e-01 -9.7087688744068146e-02</leafValues></_>
        <_>
          <internalNodes>
            0 -1 615 1.0436095297336578e-01</internalNodes>
          <leafValues>
            4.5715559273958206e-02 -7.3726540803909302e-01</leafValues></_>
        <_>
          <internalNodes>
            0 -1 224 4.9506951123476028e-02</internalNodes>
          <leafValues>
            -1.9526390731334686e-01 1.5834736824035645e-01</leafValues></_>
        <_>
          <internalNodes>
            0 -1 440 3.0726943165063858e-02</internalNodes>
          <leafValues>
            -9.8091445863246918e-02 3.0658817291259766e-01</leafValues></_>
        <_>
          <internalNodes>
            0 -1 431 6.9114610552787781e-02</internalNodes>
          <leafValues>
            3.8679491728544235e-02 -6.9015491008758545e-01</leafValues></_>
        <_>
          <internalNodes>
            0 -1 303 1.9417090341448784e-02</internalNodes>
          <leafValues>
            1.0206690430641174e-01 -2.4773599207401276e-01</leafValues></_>
        <_>
          <internalNodes>
            0 -1 606 2.1788625046610832e-02</internalNodes>
          <leafValues>
            -1.0641767084598541e-01 2.3110808432102203e-01</leafValues></_>
        <_>
          <internalNodes>
            0 -1 32 2.0754326134920120e-02</internalNodes>
          <leafValues>
            1.0793548077344894e-01 -2.4755527079105377e-01</leafValues></_>
        <_>
          <internalNodes>
            0 -1 414 7.8619249165058136e-02</internalNodes>
          <leafValues>
            -3.4633122384548187e-02 7.9155874252319336e-01</leafValues></_>
        <_>
          <internalNodes>
            0 -1 675 3.9137247949838638e-02</internalNodes>
          <leafValues>
            4.8711568117141724e-02 -6.5923595428466797e-01</leafValues></_>
        <_>
          <internalNodes>
            0 -1 622 3.3664338290691376e-02</internalNodes>
          <leafValues>
            -5.4691042751073837e-02 5.4206138849258423e-01</leafValues></_>
        <_>
          <internalNodes>
            0 -1 49 5.2021779119968414e-02</internalNodes>
          <leafValues>
            1.0257632285356522e-01 -2.3413686454296112e-01</leafValues></_>
        <_>
          <internalNodes>
            0 -1 499 1.1250741779804230e-02</internalNodes>
          <leafValues>
            1.5556962788105011e-01 -1.9798186421394348e-01</leafValues></_>
        <_>
          <internalNodes>
            0 -1 441 1.4004665613174438e-01</internalNodes>
          <leafValues>
            4.0370427072048187e-02 -7.0199584960937500e-01</leafValues></_>
        <_>
          <internalNodes>
            0 -1 94 2.4626664817333221e-03</internalNodes>
          <leafValues>
            2.3243521153926849e-01 -1.4114889502525330e-01</leafValues></_>
        <_>
          <internalNodes>
            0 -1 654 5.7801268994808197e-03</internalNodes>
          <leafValues>
            -7.3833864927291870e-01 3.8561630994081497e-02</leafValues></_>
        <_>
          <internalNodes>
            0 -1 592 2.7068898081779480e-02</internalNodes>
          <leafValues>
            5.8589339256286621e-02 -3.9551424980163574e-01</leafValues></_>
        <_>
          <internalNodes>
            0 -1 406 4.3809674680233002e-03</internalNodes>
          <leafValues>
            -4.0964254736900330e-01 6.6371984779834747e-02</leafValues></_>
        <_>
          <internalNodes>
            0 -1 456 1.8252911046147346e-02</internalNodes>
          <leafValues>
            1.5021491050720215e-01 -1.6512075066566467e-01</leafValues></_>
        <_>
          <internalNodes>
            0 -1 320 1.1317988857626915e-02</internalNodes>
          <leafValues>
            1.6735970973968506e-01 -1.3962867856025696e-01</leafValues></_>
        <_>
          <internalNodes>
            0 -1 522 1.4758650958538055e-01</internalNodes>
          <leafValues>
            3.8079552352428436e-02 -6.6760498285293579e-01</leafValues></_>
        <_>
          <internalNodes>
            0 -1 444 2.8147709090262651e-03</internalNodes>
          <leafValues>
            -7.0381015539169312e-01 2.7157733216881752e-02</leafValues></_>
        <_>
          <internalNodes>
            0 -1 182 6.2523102387785912e-03</internalNodes>
          <leafValues>
            1.7768162488937378e-01 -1.4521275460720062e-01</leafValues></_></weakClassifiers></_>
    <!-- stage 6 -->
    <_>
      <maxWeakCount>54</maxWeakCount>
      <stageThreshold>-1.5191872119903564e+00</stageThreshold>
      <weakClassifiers>
        <_>
          <internalNodes>
            0 -1 167 8.2272559404373169e-02</internalNodes>
          <leafValues>
            -4.7843775153160095e-01 4.0923397988080978e-02</leafValues></_>
        <_>
          <internalNodes>
            0 -1 691 1.6423638910055161e-02</internalNodes>
          <leafValues>
            -3.3546990156173706e-01 1.7736735939979553e-01</leafValues></_>
        <_>
          <internalNodes>
            0 -1 598 5.4219961166381836e-02</internalNodes>
          <leafValues>
            -3.0733922123908997e-01 1.9015634059906006e-01</leafValues></_>
        <_>
          <internalNodes>
            0 -1 63 2.4663127958774567e-02</internalNodes>
          <leafValues>
            -2.7176755666732788e-01 2.7604430913925171e-01</leafValues></_>
        <_>
          <internalNodes>
            0 -1 222 6.0617076233029366e-03</internalNodes>
          <leafValues>
            1.8010440468788147e-01 -3.0871874094009399e-01</leafValues></_>
        <_>
          <internalNodes>
            0 -1 403 4.6514593064785004e-02</internalNodes>
          <leafValues>
            2.1324424445629120e-01 -2.5375041365623474e-01</leafValues></_>
        <_>
          <internalNodes>
            0 -1 496 1.6219593584537506e-02</internalNodes>
          <leafValues>
            1.0151598602533340e-01 -3.6110547184944153e-01</leafValues></_>
        <_>
          <internalNodes>
            0 -1 357 7.6170349493622780e-03</internalNodes>
          <leafValues>
            -3.3387714624404907e-01 1.4382758736610413e-01</leafValues></_>
        <_>
          <internalNodes>
            0 -1 92 1.2675255537033081e-02</internalNodes>
          <leafValues>
            1.3889254629611969e-01 -2.6631423830986023e-01</leafValues></_>
        <_>
          <internalNodes>
            0 -1 229 3.6775108426809311e-02</internalNodes>
          <leafValues>
            -1.1473396420478821e-01 2.8588432073593140e-01</leafValues></_>
        <_>
          <internalNodes>
            0 -1 560 2.0480023697018623e-02</internalNodes>
          <leafValues>
            -4.0387761592864990e-01 6.0937188565731049e-02</leafValues></_>
        <_>
          <internalNodes>
            0 -1 185 5.0347119569778442e-02</internalNodes>
          <leafValues>
            -4.1152123361825943e-02 7.3540085554122925e-01</leafValues></_>
        <_>
          <internalNodes>
            0 -1 56 1.1263873428106308e-02</internalNodes>
          <leafValues>
            3.2273110747337341e-01 -8.5488893091678619e-02</leafValues></_>
        <_>
          <internalNodes>
            0 -1 373 8.9779701083898544e-03</internalNodes>
          <leafValues>
            1.8097268044948578e-01 -1.6047361493110657e-01</leafValues></_>
        <_>
          <internalNodes>
            0 -1 560 1.1138709634542465e-01</internalNodes>
          <leafValues>
            4.7012161463499069e-02 -5.9858626127243042e-01</leafValues></_>
        <_>
          <internalNodes>
            0 -1 617 6.0731399804353714e-02</internalNodes>
          <leafValues>
            3.0522093176841736e-02 -6.5300810337066650e-01</leafValues></_>
        <_>
          <internalNodes>
            0 -1 577 2.7488825842738152e-02</internalNodes>
          <leafValues>
            6.6141657531261444e-02 -3.4855175018310547e-01</leafValues></_>
        <_>
          <internalNodes>
            0 -1 50 2.7330711483955383e-02</internalNodes>
          <leafValues>
            -1.2397751957178116e-01 2.3263497650623322e-01</leafValues></_>
        <_>
          <internalNodes>
            0 -1 660 6.0271698981523514e-02</internalNodes>
          <leafValues>
            -1.1862365156412125e-01 2.1361523866653442e-01</leafValues></_>
        <_>
          <internalNodes>
            0 -1 337 1.5620840713381767e-02</internalNodes>
          <leafValues>
            -1.7448540031909943e-01 1.8656578660011292e-01</leafValues></_>
        <_>
          <internalNodes>
            0 -1 644 2.5402015075087547e-02</internalNodes>
          <leafValues>
            -5.7059895992279053e-01 4.8735182732343674e-02</leafValues></_>
        <_>
          <internalNodes>
            0 -1 26 4.2770780622959137e-02</internalNodes>
          <leafValues>
            1.2635469436645508e-01 -2.1941831707954407e-01</leafValues></_>
        <_>
          <internalNodes>
            0 -1 52 1.0917299240827560e-01</internalNodes>
          <leafValues>
            -9.7838029265403748e-02 3.0805975198745728e-01</leafValues></_>
        <_>
          <internalNodes>
            0 -1 7 2.7098901569843292e-02</internalNodes>
          <leafValues>
            -1.0885015130043030e-01 2.1933372318744659e-01</leafValues></_>
        <_>
          <internalNodes>
            0 -1 441 2.5749539956450462e-02</internalNodes>
          <leafValues>
            -3.3033862709999084e-01 7.4018150568008423e-02</leafValues></_>
        <_>
          <internalNodes>
            0 -1 403 1.7032571136951447e-02</internalNodes>
          <leafValues>
            3.0080839991569519e-01 -8.1933632493019104e-02</leafValues></_>
        <_>
          <internalNodes>
            0 -1 254 9.2025492340326309e-03</internalNodes>
          <leafValues>
            1.5271067619323730e-01 -1.8641513586044312e-01</leafValues></_>
        <_>
          <internalNodes>
            0 -1 411 9.5350071787834167e-02</internalNodes>
          <leafValues>
            5.5898934602737427e-02 -4.1255289316177368e-01</leafValues></_>
        <_>
          <internalNodes>
            0 -1 263 1.0856330394744873e-02</internalNodes>
          <leafValues>
            1.1420551687479019e-01 -1.8088176846504211e-01</leafValues></_>
        <_>
          <internalNodes>
            0 -1 689 1.4527473598718643e-02</internalNodes>
          <leafValues>
            -3.0383661389350891e-01 7.8163452446460724e-02</leafValues></_>
        <_>
          <internalNodes>
            0 -1 460 6.4077123999595642e-02</internalNodes>
          <leafValues>
            -1.3308131694793701e-01 1.6783259809017181e-01</leafValues></_>
        <_>
          <internalNodes>
            0 -1 14 5.8741293847560883e-02</internalNodes>
          <leafValues>
            -5.3689450025558472e-02 5.2316325902938843e-01</leafValues></_>
        <_>
          <internalNodes>
            0 -1 493 5.5677387863397598e-03</internalNodes>
          <leafValues>
            -5.9648019075393677e-01 4.1991863399744034e-02</leafValues></_>
        <_>
          <internalNodes>
            0 -1 88 9.3773148953914642e-02</internalNodes>
          <leafValues>
            -4.1650265455245972e-02 6.1313730478286743e-01</leafValues></_>
        <_>
          <internalNodes>
            0 -1 698 8.7626632302999496e-03</internalNodes>
          <leafValues>
            -2.1873287856578827e-01 1.1655613034963608e-01</leafValues></_>
        <_>
          <internalNodes>
            0 -1 386 4.3355273082852364e-03</internalNodes>
          <leafValues>
            2.0469857752323151e-01 -1.4209601283073425e-01</leafValues></_>
        <_>
          <internalNodes>
            0 -1 284 3.4235887229442596e-02</internalNodes>
          <leafValues>
            1.5027748048305511e-01 -1.4176356792449951e-01</leafValues></_>
        <_>
          <internalNodes>
            0 -1 296 1.7460377421230078e-03</internalNodes>
          <leafValues>
            3.4949487447738647e-01 -6.9819770753383636e-02</leafValues></_>
        <_>
          <internalNodes>
            0 -1 683 1.2553706765174866e-02</internalNodes>
          <leafValues>
            -7.2475802898406982e-01 3.2992042601108551e-02</leafValues></_>
        <_>
          <internalNodes>
            0 -1 188 3.3800035715103149e-02</internalNodes>
          <leafValues>
            -5.7558055967092514e-02 3.9423713088035583e-01</leafValues></_>
        <_>
          <internalNodes>
            0 -1 659 4.9315288662910461e-02</internalNodes>
          <leafValues>
            3.6078162491321564e-02 -6.1125999689102173e-01</leafValues></_>
        <_>
          <internalNodes>
            0 -1 49 2.4279626086354256e-02</internalNodes>
          <leafValues>
            1.5263018012046814e-01 -1.4167615771293640e-01</leafValues></_>
        <_>
          <internalNodes>
            0 -1 655 4.8773139715194702e-02</internalNodes>
          <leafValues>
            -2.3570123314857483e-01 9.9209092557430267e-02</leafValues></_>
        <_>
          <internalNodes>
            0 -1 66 3.2303199172019958e-02</internalNodes>
          <leafValues>
            -7.8092969954013824e-02 2.8149881958961487e-01</leafValues></_>
        <_>
          <internalNodes>
            0 -1 4 7.3712326586246490e-02</internalNodes>
          <leafValues>
            -5.0870630890130997e-02 4.3630611896514893e-01</leafValues></_>
        <_>
          <internalNodes>
            0 -1 3 1.8770769238471985e-01</internalNodes>
          <leafValues>
            -2.7151811867952347e-02 8.5152792930603027e-01</leafValues></_>
        <_>
          <internalNodes>
            0 -1 240 1.8926501274108887e-02</internalNodes>
          <leafValues>
            2.6111698150634766e-01 -7.2958663105964661e-02</leafValues></_>
        <_>
          <internalNodes>
            0 -1 217 6.0205804184079170e-03</internalNodes>
          <leafValues>
            1.8455109000205994e-01 -1.1783605813980103e-01</leafValues></_>
        <_>
          <internalNodes>
            0 -1 624 2.5870124809443951e-03</internalNodes>
          <leafValues>
            -4.1789385676383972e-01 5.7033404707908630e-02</leafValues></_>
        <_>
          <internalNodes>
            0 -1 160 2.5257075205445290e-02</internalNodes>
          <leafValues>
            8.6222521960735321e-02 -2.6527482271194458e-01</leafValues></_>
        <_>
          <internalNodes>
            0 -1 694 2.1237526088953018e-02</internalNodes>
          <leafValues>
            -1.1922281980514526e-01 1.6608789563179016e-01</leafValues></_>
        <_>
          <internalNodes>
            0 -1 491 2.4118261411786079e-02</internalNodes>
          <leafValues>
            4.8801802098751068e-02 -4.2508137226104736e-01</leafValues></_>
        <_>
          <internalNodes>
            0 -1 430 5.6440392509102821e-03</internalNodes>
          <leafValues>
            -2.6828652620315552e-01 7.5242608785629272e-02</leafValues></_>
        <_>
          <internalNodes>
            0 -1 248 2.4910201318562031e-03</internalNodes>
          <leafValues>
            3.4084323048591614e-01 -7.0397995412349701e-02</leafValues></_></weakClassifiers></_>
    <!-- stage 7 -->
    <_>
      <maxWeakCount>47</maxWeakCount>
      <stageThreshold>-1.4422420263290405e+00</stageThreshold>
      <weakClassifiers>
        <_>
          <internalNodes>
            0 -1 358 8.3271972835063934e-03</internalNodes>
          <leafValues>
            -6.9576954841613770e-01 -1.5826086699962616e-01</leafValues></_>
        <_>
          <internalNodes>
            0 -1 666 5.4698199033737183e-02</internalNodes>
          <leafValues>
            -3.7459963560104370e-01 1.4974731206893921e-01</leafValues></_>
        <_>
          <internalNodes>
            0 -1 691 1.1265155859291553e-02</internalNodes>
          <leafValues>
            -4.3023458123207092e-01 1.9761469960212708e-01</leafValues></_>
        <_>
          <internalNodes>
            0 -1 674 3.3842779695987701e-02</internalNodes>
          <leafValues>
            -3.6405783891677856e-01 1.3350731134414673e-01</leafValues></_>
        <_>
          <internalNodes>
            0 -1 415 3.2184988260269165e-02</internalNodes>
          <leafValues>
            -1.9720056653022766e-01 2.8422918915748596e-01</leafValues></_>
        <_>
          <internalNodes>
            0 -1 553 4.1369616985321045e-02</internalNodes>
          <leafValues>
            -2.6860734820365906e-01 1.7057467997074127e-01</leafValues></_>
        <_>
          <internalNodes>
            0 -1 458 3.0262583866715431e-02</internalNodes>
          <leafValues>
            -3.0823153257369995e-01 1.5599544346332550e-01</leafValues></_>
        <_>
          <internalNodes>
            0 -1 698 5.0207758322358131e-03</internalNodes>
          <leafValues>
            -3.7766495347023010e-01 9.4226025044918060e-02</leafValues></_>
        <_>
          <internalNodes>
            0 -1 542 2.1737538278102875e-02</internalNodes>
          <leafValues>
            8.0020017921924591e-02 -4.4112017750740051e-01</leafValues></_>
        <_>
          <internalNodes>
            0 -1 241 1.1917019262909889e-02</internalNodes>
          <leafValues>
            1.8798172473907471e-01 -1.7316399514675140e-01</leafValues></_>
        <_>
          <internalNodes>
            0 -1 537 2.6498006656765938e-02</internalNodes>
          <leafValues>
            8.0503009259700775e-02 -3.4726488590240479e-01</leafValues></_>
        <_>
          <internalNodes>
            0 -1 651 6.3376002945005894e-03</internalNodes>
          <leafValues>
            -3.2468906044960022e-01 1.0987780988216400e-01</leafValues></_>
        <_>
          <internalNodes>
            0 -1 543 1.6655212268233299e-02</internalNodes>
          <leafValues>
            -4.8562270402908325e-01 7.6628416776657104e-02</leafValues></_>
        <_>
          <internalNodes>
            0 -1 301 2.0439233630895615e-02</internalNodes>
          <leafValues>
            9.5522701740264893e-02 -3.0439803004264832e-01</leafValues></_>
        <_>
          <internalNodes>
            0 -1 262 2.5573670864105225e-02</internalNodes>
          <leafValues>
            -1.4247086644172668e-01 2.2819826006889343e-01</leafValues></_>
        <_>
          <internalNodes>
            0 -1 686 1.0462547838687897e-01</internalNodes>
          <leafValues>
            -1.1318756639957428e-01 2.9432901740074158e-01</leafValues></_>
        <_>
          <internalNodes>
            0 -1 677 1.5392856439575553e-03</internalNodes>
          <leafValues>
            -8.4744656085968018e-01 4.6192459762096405e-02</leafValues></_>
        <_>
          <internalNodes>
            0 -1 4 5.4496109485626221e-02</internalNodes>
          <leafValues>
            -9.7051881253719330e-02 3.1690678000450134e-01</leafValues></_>
        <_>
          <internalNodes>
            0 -1 428 3.3365204930305481e-02</internalNodes>
          <leafValues>
            9.6869915723800659e-02 -2.6884186267852783e-01</leafValues></_>
        <_>
          <internalNodes>
            0 -1 495 1.2730969116091728e-02</internalNodes>
          <leafValues>
            1.2840929627418518e-01 -2.2573786973953247e-01</leafValues></_>
        <_>
          <internalNodes>
            0 -1 68 4.7161363065242767e-02</internalNodes>
          <leafValues>
            5.3217247128486633e-02 -4.4766411185264587e-01</leafValues></_>
        <_>
          <internalNodes>
            0 -1 492 3.2747169025242329e-03</internalNodes>
          <leafValues>
            -4.0892747044563293e-01 5.6816339492797852e-02</leafValues></_>
        <_>
          <internalNodes>
            0 -1 220 2.4602198973298073e-03</internalNodes>
          <leafValues>
            2.5666463375091553e-01 -1.0645832866430283e-01</leafValues></_>
        <_>
          <internalNodes>
            0 -1 355 8.0569721758365631e-02</internalNodes>
          <leafValues>
            6.6705234348773956e-02 -3.6989563703536987e-01</leafValues></_>
        <_>
          <internalNodes>
            0 -1 48 1.1257290840148926e-02</internalNodes>
          <leafValues>
            1.9005459547042847e-01 -1.4617387950420380e-01</leafValues></_>
        <_>
          <internalNodes>
            0 -1 344 4.8060908913612366e-02</internalNodes>
          <leafValues>
            -7.0157676935195923e-02 4.2873585224151611e-01</leafValues></_>
        <_>
          <internalNodes>
            0 -1 618 2.0561799407005310e-01</internalNodes>
          <leafValues>
            3.4974150359630585e-02 -8.4872484207153320e-01</leafValues></_>
        <_>
          <internalNodes>
            0 -1 419 4.6180650591850281e-02</internalNodes>
          <leafValues>
            -1.6183631122112274e-01 1.6312254965305328e-01</leafValues></_>
        <_>
          <internalNodes>
            0 -1 256 1.0799409821629524e-02</internalNodes>
          <leafValues>
            1.3582804799079895e-01 -1.7002245783805847e-01</leafValues></_>
        <_>
          <internalNodes>
            0 -1 153 3.2172903418540955e-02</internalNodes>
          <leafValues>
            -6.0564644634723663e-02 4.2085263133049011e-01</leafValues></_>
        <_>
          <internalNodes>
            0 -1 589 7.0751933380961418e-03</internalNodes>
          <leafValues>
            -8.6301732063293457e-01 3.3086493611335754e-02</leafValues></_>
        <_>
          <internalNodes>
            0 -1 55 6.9287776947021484e-02</internalNodes>
          <leafValues>
            5.2353896200656891e-02 -3.8423684239387512e-01</leafValues></_>
        <_>
          <internalNodes>
            0 -1 539 2.8291588649153709e-02</internalNodes>
          <leafValues>
            -2.9149883985519409e-01 7.3645405471324921e-02</leafValues></_>
        <_>
          <internalNodes>
            0 -1 334 2.9348008334636688e-02</internalNodes>
          <leafValues>
            1.7418949306011200e-01 -1.6232889890670776e-01</leafValues></_>
        <_>
          <internalNodes>
            0 -1 156 4.4655427336692810e-03</internalNodes>
          <leafValues>
            1.8843223154544830e-01 -1.1518038064241409e-01</leafValues></_>
        <_>
          <internalNodes>
            0 -1 605 1.0966006666421890e-01</internalNodes>
          <leafValues>
            5.0175953656435013e-02 -3.8292768597602844e-01</leafValues></_>
        <_>
          <internalNodes>
            0 -1 547 2.9592955484986305e-02</internalNodes>
          <leafValues>
            -2.1808867156505585e-01 9.9424995481967926e-02</leafValues></_>
        <_>
          <internalNodes>
            0 -1 683 1.1634092032909393e-01</internalNodes>
          <leafValues>
            2.7813982218503952e-02 -6.1089134216308594e-01</leafValues></_>
        <_>
          <internalNodes>
            0 -1 579 5.2123315632343292e-02</internalNodes>
          <leafValues>
            2.8438588604331017e-02 -6.0743397474288940e-01</leafValues></_>
        <_>
          <internalNodes>
            0 -1 193 3.3842608332633972e-02</internalNodes>
          <leafValues>
            6.7967817187309265e-02 -2.8520855307579041e-01</leafValues></_>
        <_>
          <internalNodes>
            0 -1 338 6.7092686891555786e-02</internalNodes>
          <leafValues>
            -4.3380558490753174e-02 4.9799412488937378e-01</leafValues></_>
        <_>
          <internalNodes>
            0 -1 317 5.3922422230243683e-03</internalNodes>
          <leafValues>
            2.2623986005783081e-01 -9.8394162952899933e-02</leafValues></_>
        <_>
          <internalNodes>
            0 -1 536 2.0730746909976006e-03</internalNodes>
          <leafValues>
            -2.9375854134559631e-01 7.7096298336982727e-02</leafValues></_>
        <_>
          <internalNodes>
            0 -1 342 1.2005425989627838e-01</internalNodes>
          <leafValues>
            -7.0390552282333374e-02 3.5751560330390930e-01</leafValues></_>
        <_>
          <internalNodes>
            0 -1 189 1.9449940323829651e-01</internalNodes>
          <leafValues>
            -4.3756492435932159e-02 4.6141955256462097e-01</leafValues></_>
        <_>
          <internalNodes>
            0 -1 608 8.0591412261128426e-03</internalNodes>
          <leafValues>
            -2.5645241141319275e-01 9.4452954828739166e-02</leafValues></_>
        <_>
          <internalNodes>
            0 -1 238 4.2168285697698593e-02</internalNodes>
          <leafValues>
            7.8015305101871490e-02 -3.1549021601676941e-01</leafValues></_></weakClassifiers></_>
    <!-- stage 8 -->
    <_>
      <maxWeakCount>58</maxWeakCount>
      <stageThreshold>-1.4465860128402710e+00</stageThreshold>
      <weakClassifiers>
        <_>
          <internalNodes>
            0 -1 363 1.9319502636790276e-02</internalNodes>
          <leafValues>
            -6.3349914550781250e-01 -1.6916099190711975e-01</leafValues></_>
        <_>
          <internalNodes>
            0 -1 162 6.1875116080045700e-03</internalNodes>
          <leafValues>
            2.1956977248191833e-01 -3.0317926406860352e-01</leafValues></_>
        <_>
          <internalNodes>
            0 -1 690 2.4594765156507492e-02</internalNodes>
          <leafValues>
            -2.1598587930202484e-01 2.4052441120147705e-01</leafValues></_>
        <_>
          <internalNodes>
            0 -1 676 5.6779317557811737e-02</internalNodes>
          <leafValues>
            -3.3463940024375916e-01 2.1745428442955017e-01</leafValues></_>
        <_>
          <internalNodes>
            0 -1 649 1.5041079372167587e-02</internalNodes>
          <leafValues>
            -2.9078796505928040e-01 1.6128905117511749e-01</leafValues></_>
        <_>
          <internalNodes>
            0 -1 96 1.7971258610486984e-02</internalNodes>
          <leafValues>
            2.2223395109176636e-01 -1.5749292075634003e-01</leafValues></_>
        <_>
          <internalNodes>
            0 -1 223 1.2202801182866096e-02</internalNodes>
          <leafValues>
            1.6278104484081268e-01 -2.2184771299362183e-01</leafValues></_>
        <_>
          <internalNodes>
            0 -1 405 1.7750086262822151e-02</internalNodes>
          <leafValues>
            -1.8137101829051971e-01 1.8855431675910950e-01</leafValues></_>
        <_>
          <internalNodes>
            0 -1 411 3.2233431935310364e-02</internalNodes>
          <leafValues>
            -2.8307867050170898e-01 1.1291044205427170e-01</leafValues></_>
        <_>
          <internalNodes>
            0 -1 588 3.9749763906002045e-02</internalNodes>
          <leafValues>
            -2.0408979058265686e-01 1.3582891225814819e-01</leafValues></_>
        <_>
          <internalNodes>
            0 -1 43 2.8086036443710327e-02</internalNodes>
          <leafValues>
            -1.4207601547241211e-01 2.3756413161754608e-01</leafValues></_>
        <_>
          <internalNodes>
            0 -1 33 4.8277109861373901e-02</internalNodes>
          <leafValues>
            3.6294788122177124e-02 -6.7807918787002563e-01</leafValues></_>
        <_>
          <internalNodes>
            0 -1 4 3.0002240091562271e-02</internalNodes>
          <leafValues>
            -1.5049597620964050e-01 1.8688145279884338e-01</leafValues></_>
        <_>
          <internalNodes>
            0 -1 652 2.2491440176963806e-02</internalNodes>
          <leafValues>
            1.0216749459505081e-01 -3.0722481012344360e-01</leafValues></_>
        <_>
          <internalNodes>
            0 -1 697 5.8068679645657539e-03</internalNodes>
          <leafValues>
            -3.2323583960533142e-01 6.0216613113880157e-02</leafValues></_>
        <_>
          <internalNodes>
            0 -1 277 8.1950956955552101e-03</internalNodes>
          <leafValues>
            2.0007990300655365e-01 -1.5195806324481964e-01</leafValues></_>
        <_>
          <internalNodes>
            0 -1 668 4.4228695333003998e-02</internalNodes>
          <leafValues>
            -2.6215353608131409e-01 1.0059988498687744e-01</leafValues></_>
        <_>
          <internalNodes>
            0 -1 236 3.9650004357099533e-02</internalNodes>
          <leafValues>
            -7.3919653892517090e-02 4.0052929520606995e-01</leafValues></_>
        <_>
          <internalNodes>
            0 -1 699 6.0029186308383942e-02</internalNodes>
          <leafValues>
            3.7863727658987045e-02 -6.9651603698730469e-01</leafValues></_>
        <_>
          <internalNodes>
            0 -1 336 3.5711109638214111e-02</internalNodes>
          <leafValues>
            -8.1126578152179718e-02 2.9815277457237244e-01</leafValues></_>
        <_>
          <internalNodes>
            0 -1 151 6.8079400807619095e-03</internalNodes>
          <leafValues>
            1.4006660878658295e-01 -1.6591840982437134e-01</leafValues></_>
        <_>
          <internalNodes>
            0 -1 120 4.0486276149749756e-02</internalNodes>
          <leafValues>
            -3.8908742368221283e-02 6.4386737346649170e-01</leafValues></_>
        <_>
          <internalNodes>
            0 -1 172 1.8941761925816536e-02</internalNodes>
          <leafValues>
            -4.5908671617507935e-01 4.8902291804552078e-02</leafValues></_>
        <_>
          <internalNodes>
            0 -1 304 1.9985496997833252e-02</internalNodes>
          <leafValues>
            1.7304578423500061e-01 -1.3602371513843536e-01</leafValues></_>
        <_>
          <internalNodes>
            0 -1 19 4.6026997268199921e-02</internalNodes>
          <leafValues>
            -8.3857044577598572e-02 2.6538294553756714e-01</leafValues></_>
        <_>
          <internalNodes>
            0 -1 353 2.4167042225599289e-02</internalNodes>
          <leafValues>
            1.0148677974939346e-01 -2.2771079838275909e-01</leafValues></_>
        <_>
          <internalNodes>
            0 -1 355 7.2640001773834229e-02</internalNodes>
          <leafValues>
            6.5794520080089569e-02 -3.4359917044639587e-01</leafValues></_>
        <_>
          <internalNodes>
            0 -1 118 5.8232678566128016e-04</internalNodes>
          <leafValues>
            3.4840276837348938e-01 -6.9790780544281006e-02</leafValues></_>
        <_>
          <internalNodes>
            0 -1 579 4.6255672350525856e-03</internalNodes>
          <leafValues>
            -5.3482741117477417e-01 5.1563777029514313e-02</leafValues></_>
        <_>
          <internalNodes>
            0 -1 145 2.1085056941956282e-03</internalNodes>
          <leafValues>
            2.3144647479057312e-01 -1.0406023263931274e-01</leafValues></_>
        <_>
          <internalNodes>
            0 -1 549 3.3287182450294495e-02</internalNodes>
          <leafValues>
            -8.8209576904773712e-02 2.4071645736694336e-01</leafValues></_>
        <_>
          <internalNodes>
            0 -1 227 7.0738214999437332e-03</internalNodes>
          <leafValues>
            1.6614250838756561e-01 -1.3584768772125244e-01</leafValues></_>
        <_>
          <internalNodes>
            0 -1 55 1.0214990377426147e-01</internalNodes>
          <leafValues>
            3.6671131849288940e-02 -6.1605608463287354e-01</leafValues></_>
        <_>
          <internalNodes>
            0 -1 61 7.8971616923809052e-02</internalNodes>
          <leafValues>
            2.7758684009313583e-02 -6.5406006574630737e-01</leafValues></_>
        <_>
          <internalNodes>
            0 -1 473 1.1137567460536957e-01</internalNodes>
          <leafValues>
            3.7191279232501984e-02 -4.4281896948814392e-01</leafValues></_>
        <_>
          <internalNodes>
            0 -1 99 3.1127732247114182e-02</internalNodes>
          <leafValues>
            8.0778844654560089e-02 -2.3328609764575958e-01</leafValues></_>
        <_>
          <internalNodes>
            0 -1 180 3.9838705211877823e-02</internalNodes>
          <leafValues>
            -5.2174512296915054e-02 4.1661185026168823e-01</leafValues></_>
        <_>
          <internalNodes>
            0 -1 633 3.8499157875776291e-02</internalNodes>
          <leafValues>
            4.0929358452558517e-02 -5.1694434881210327e-01</leafValues></_>
        <_>
          <internalNodes>
            0 -1 307 6.0686487704515457e-03</internalNodes>
          <leafValues>
            -3.2447490096092224e-01 5.2546307444572449e-02</leafValues></_>
        <_>
          <internalNodes>
            0 -1 414 8.5918307304382324e-02</internalNodes>
          <leafValues>
            -3.2105922698974609e-02 5.7682502269744873e-01</leafValues></_>
        <_>
          <internalNodes>
            0 -1 93 6.1409175395965576e-03</internalNodes>
          <leafValues>
            1.2446901947259903e-01 -1.4506153762340546e-01</leafValues></_>
        <_>
          <internalNodes>
            0 -1 576 2.9990654438734055e-03</internalNodes>
          <leafValues>
            -2.2245296835899353e-01 8.1015907227993011e-02</leafValues></_>
        <_>
          <internalNodes>
            0 -1 139 5.4820789955556393e-03</internalNodes>
          <leafValues>
            1.6335640847682953e-01 -1.2093793600797653e-01</leafValues></_>
        <_>
          <internalNodes>
            0 -1 446 4.1213914752006531e-02</internalNodes>
          <leafValues>
            2.6607865467667580e-02 -6.5088444948196411e-01</leafValues></_>
        <_>
          <internalNodes>
            0 -1 8 1.2620193883776665e-02</internalNodes>
          <leafValues>
            -2.1230868995189667e-01 8.9976370334625244e-02</leafValues></_>
        <_>
          <internalNodes>
            0 -1 41 1.1717695742845535e-02</internalNodes>
          <leafValues>
            1.5278387069702148e-01 -1.2953785061836243e-01</leafValues></_>
        <_>
          <internalNodes>
            0 -1 333 1.3272142410278320e-01</internalNodes>
          <leafValues>
            3.8081213831901550e-02 -5.3402209281921387e-01</leafValues></_>
        <_>
          <internalNodes>
            0 -1 342 1.1502091586589813e-01</internalNodes>
          <leafValues>
            -7.4931554496288300e-02 2.8279146552085876e-01</leafValues></_>
        <_>
          <internalNodes>
            0 -1 50 4.7837637364864349e-02</internalNodes>
          <leafValues>
            -6.1465583741664886e-02 3.6159503459930420e-01</leafValues></_>
        <_>
          <internalNodes>
            0 -1 565 1.9123086333274841e-01</internalNodes>
          <leafValues>
            2.0344529300928116e-02 -9.2056369781494141e-01</leafValues></_>
        <_>
          <internalNodes>
            0 -1 6 2.9781855642795563e-02</internalNodes>
          <leafValues>
            3.0488008633255959e-02 -4.9830570816993713e-01</leafValues></_>
        <_>
          <internalNodes>
            0 -1 119 2.8214864432811737e-03</internalNodes>
          <leafValues>
            2.1314743161201477e-01 -8.7674133479595184e-02</leafValues></_>
        <_>
          <internalNodes>
            0 -1 670 6.2002912163734436e-03</internalNodes>
          <leafValues>
            -3.1250312924385071e-01 6.3291497528553009e-02</leafValues></_>
        <_>
          <internalNodes>
            0 -1 341 6.7487359046936035e-02</internalNodes>
          <leafValues>
            -4.1691381484270096e-02 4.5037844777107239e-01</leafValues></_>
        <_>
          <internalNodes>
            0 -1 489 3.7192434072494507e-02</internalNodes>
          <leafValues>
            5.7539466768503189e-02 -3.7851575016975403e-01</leafValues></_>
        <_>
          <internalNodes>
            0 -1 248 7.9951688647270203e-02</internalNodes>
          <leafValues>
            -3.5765472799539566e-02 5.5656766891479492e-01</leafValues></_>
        <_>
          <internalNodes>
            0 -1 10 3.2961638644337654e-03</internalNodes>
          <leafValues>
            -6.3795840740203857e-01 3.3985715359449387e-02</leafValues></_>
        <_>
          <internalNodes>
            0 -1 588 1.2344299815595150e-02</internalNodes>
          <leafValues>
            -4.9574676156044006e-01 3.0059590935707092e-02</leafValues></_></weakClassifiers></_>
    <!-- stage 9 -->
    <_>
      <maxWeakCount>47</maxWeakCount>
      <stageThreshold>-1.3976253271102905e+00</stageThreshold>
      <weakClassifiers>
        <_>
          <internalNodes>
            0 -1 628 5.0062973052263260e-02</internalNodes>
          <leafValues>
            -5.8418077230453491e-01 -6.2766604125499725e-02</leafValues></_>
        <_>
          <internalNodes>
            0 -1 676 3.9169490337371826e-02</internalNodes>
          <leafValues>
            -5.6977218389511108e-01 8.9927181601524353e-02</leafValues></_>
        <_>
          <internalNodes>
            0 -1 164 3.8465769030153751e-03</internalNodes>
          <leafValues>
            2.2590856254100800e-01 -2.4837234616279602e-01</leafValues></_>
        <_>
          <internalNodes>
            0 -1 650 3.3816061913967133e-02</internalNodes>
          <leafValues>
            1.0608617216348648e-01 -6.0015529394149780e-01</leafValues></_>
        <_>
          <internalNodes>
            0 -1 639 1.1611655354499817e-02</internalNodes>
          <leafValues>
            -5.3653705120086670e-01 1.0365898162126541e-01</leafValues></_>
        <_>
          <internalNodes>
            0 -1 391 1.7621446400880814e-02</internalNodes>
          <leafValues>
            -3.3736330270767212e-01 8.0492384731769562e-02</leafValues></_>
        <_>
          <internalNodes>
            0 -1 227 1.7184495925903320e-02</internalNodes>
          <leafValues>
            1.3259620964527130e-01 -2.9068410396575928e-01</leafValues></_>
        <_>
          <internalNodes>
            0 -1 490 4.9489885568618774e-02</internalNodes>
          <leafValues>
            -1.9367039203643799e-01 1.8067766726016998e-01</leafValues></_>
        <_>
          <internalNodes>
            0 -1 621 2.3753797635436058e-02</internalNodes>
          <leafValues>
            -1.3537365198135376e-01 2.4111318588256836e-01</leafValues></_>
        <_>
          <internalNodes>
            0 -1 542 3.3488474786281586e-02</internalNodes>
          <leafValues>
            4.5178581029176712e-02 -6.4685088396072388e-01</leafValues></_>
        <_>
          <internalNodes>
            0 -1 46 3.3294215798377991e-02</internalNodes>
          <leafValues>
            -1.0031992197036743e-01 2.7132263779640198e-01</leafValues></_>
        <_>
          <internalNodes>
            0 -1 336 2.3419156670570374e-02</internalNodes>
          <leafValues>
            -1.3018840551376343e-01 2.1220652759075165e-01</leafValues></_>
        <_>
          <internalNodes>
            0 -1 690 6.9067493081092834e-02</internalNodes>
          <leafValues>
            3.0688863247632980e-02 -6.7276108264923096e-01</leafValues></_>
        <_>
          <internalNodes>
            0 -1 1 1.6545146703720093e-02</internalNodes>
          <leafValues>
            1.5689469873905182e-01 -1.5269336104393005e-01</leafValues></_>
        <_>
          <internalNodes>
            0 -1 640 2.0804354920983315e-02</internalNodes>
          <leafValues>
            -3.2635343074798584e-01 9.1622859239578247e-02</leafValues></_>
        <_>
          <internalNodes>
            0 -1 550 2.7004495263099670e-02</internalNodes>
          <leafValues>
            -1.3077841699123383e-01 2.0975185930728912e-01</leafValues></_>
        <_>
          <internalNodes>
            0 -1 668 6.7470446228981018e-02</internalNodes>
          <leafValues>
            -1.5386384725570679e-01 1.9732396304607391e-01</leafValues></_>
        <_>
          <internalNodes>
            0 -1 346 1.5189280733466148e-02</internalNodes>
          <leafValues>
            1.3824541866779327e-01 -1.7170287668704987e-01</leafValues></_>
        <_>
          <internalNodes>
            0 -1 464 2.8602685779333115e-02</internalNodes>
          <leafValues>
            -1.1596681922674179e-01 2.0249964296817780e-01</leafValues></_>
        <_>
          <internalNodes>
            0 -1 411 2.9354913160204887e-02</internalNodes>
          <leafValues>
            -2.5611433386802673e-01 9.3928754329681396e-02</leafValues></_>
        <_>
          <internalNodes>
            0 -1 571 1.8954426050186157e-02</internalNodes>
          <leafValues>
            -2.0389990508556366e-01 1.0884173959493637e-01</leafValues></_>
        <_>
          <internalNodes>
            0 -1 593 1.4043474569916725e-02</internalNodes>
          <leafValues>
            1.0761297494173050e-01 -1.8170849978923798e-01</leafValues></_>
        <_>
          <internalNodes>
            0 -1 486 8.7986169382929802e-03</internalNodes>
          <leafValues>
            -5.5051666498184204e-01 3.4644484519958496e-02</leafValues></_>
        <_>
          <internalNodes>
            0 -1 215 4.4947866350412369e-02</internalNodes>
          <leafValues>
            -4.3088592588901520e-02 5.0822418928146362e-01</leafValues></_>
        <_>
          <internalNodes>
            0 -1 208 6.4718769863247871e-04</internalNodes>
          <leafValues>
            2.9370036721229553e-01 -6.2600061297416687e-02</leafValues></_>
        <_>
          <internalNodes>
            0 -1 104 2.8356350958347321e-02</internalNodes>
          <leafValues>
            1.6859777271747589e-01 -1.1044631898403168e-01</leafValues></_>
        <_>
          <internalNodes>
            0 -1 688 2.8452843427658081e-02</internalNodes>
          <leafValues>
            -3.2871416211128235e-01 5.4701272398233414e-02</leafValues></_>
        <_>
          <internalNodes>
            0 -1 158 1.3257211539894342e-03</internalNodes>
          <leafValues>
            2.4238714575767517e-01 -7.7870354056358337e-02</leafValues></_>
        <_>
          <internalNodes>
            0 -1 438 7.8517245128750801e-03</internalNodes>
          <leafValues>
            -2.1979001164436340e-01 8.9638590812683105e-02</leafValues></_>
        <_>
          <internalNodes>
            0 -1 437 2.4951785802841187e-02</internalNodes>
          <leafValues>
            -2.5674426555633545e-01 7.0815585553646088e-02</leafValues></_>
        <_>
          <internalNodes>
            0 -1 520 3.8933947682380676e-02</internalNodes>
          <leafValues>
            -3.9537925273180008e-02 4.7605228424072266e-01</leafValues></_>
        <_>
          <internalNodes>
            0 -1 112 5.7163788005709648e-03</internalNodes>
          <leafValues>
            1.7703306674957275e-01 -9.5972232520580292e-02</leafValues></_>
        <_>
          <internalNodes>
            0 -1 594 7.4964754283428192e-02</internalNodes>
          <leafValues>
            5.8621957898139954e-02 -3.4086194634437561e-01</leafValues></_>
        <_>
          <internalNodes>
            0 -1 699 5.7879693806171417e-02</internalNodes>
          <leafValues>
            2.1832296624779701e-02 -6.1089605093002319e-01</leafValues></_>
        <_>
          <internalNodes>
            0 -1 692 3.5910360515117645e-02</internalNodes>
          <leafValues>
            3.0122153460979462e-02 -5.4692620038986206e-01</leafValues></_>
        <_>
          <internalNodes>
            0 -1 469 2.6118189096450806e-02</internalNodes>
          <leafValues>
            -9.1646835207939148e-02 2.0417419075965881e-01</leafValues></_>
        <_>
          <internalNodes>
            0 -1 168 7.7434265986084938e-03</internalNodes>
          <leafValues>
            1.3768060505390167e-01 -1.3696157932281494e-01</leafValues></_>
        <_>
          <internalNodes>
            0 -1 211 1.7928555607795715e-02</internalNodes>
          <leafValues>
            2.6550853252410889e-01 -7.9761564731597900e-02</leafValues></_>
        <_>
          <internalNodes>
            0 -1 446 2.9751997441053391e-02</internalNodes>
          <leafValues>
            4.2607311159372330e-02 -4.0731528401374817e-01</leafValues></_>
        <_>
          <internalNodes>
            0 -1 115 4.9554519355297089e-02</internalNodes>
          <leafValues>
            -4.0059842169284821e-02 5.8610165119171143e-01</leafValues></_>
        <_>
          <internalNodes>
            0 -1 31 5.9013098478317261e-02</internalNodes>
          <leafValues>
            3.8622274994850159e-02 -5.0603866577148438e-01</leafValues></_>
        <_>
          <internalNodes>
            0 -1 695 9.0994425117969513e-02</internalNodes>
          <leafValues>
            3.4474968910217285e-02 -4.3991321325302124e-01</leafValues></_>
        <_>
          <internalNodes>
            0 -1 122 2.3424753919243813e-02</internalNodes>
          <leafValues>
            6.6501744091510773e-02 -2.9106953740119934e-01</leafValues></_>
        <_>
          <internalNodes>
            0 -1 133 4.1794992983341217e-02</internalNodes>
          <leafValues>
            1.7780956625938416e-01 -9.6481181681156158e-02</leafValues></_>
        <_>
          <internalNodes>
            0 -1 292 1.0447095148265362e-02</internalNodes>
          <leafValues>
            1.4296613633632660e-01 -1.3085718452930450e-01</leafValues></_>
        <_>
          <internalNodes>
            0 -1 293 3.2902944833040237e-02</internalNodes>
          <leafValues>
            -8.7746657431125641e-02 2.0732267200946808e-01</leafValues></_>
        <_>
          <internalNodes>
            0 -1 199 1.1447019875049591e-02</internalNodes>
          <leafValues>
            1.1473105102777481e-01 -1.6216331720352173e-01</leafValues></_></weakClassifiers></_>
    <!-- stage 10 -->
    <_>
      <maxWeakCount>79</maxWeakCount>
      <stageThreshold>-1.3013204336166382e+00</stageThreshold>
      <weakClassifiers>
        <_>
          <internalNodes>
            0 -1 363 3.5230107605457306e-02</internalNodes>
          <leafValues>
            -5.1078432798385620e-01 -6.9292485713958740e-02</leafValues></_>
        <_>
          <internalNodes>
            0 -1 404 9.7505766898393631e-03</internalNodes>
          <leafValues>
            -3.2396978139877319e-01 1.1521439254283905e-01</leafValues></_>
        <_>
          <internalNodes>
            0 -1 686 9.9579229950904846e-02</internalNodes>
          <leafValues>
            -1.4665845036506653e-01 3.1086334586143494e-01</leafValues></_>
        <_>
          <internalNodes>
            0 -1 649 1.2768184766173363e-02</internalNodes>
          <leafValues>
            -3.4407687187194824e-01 1.3006120920181274e-01</leafValues></_>
        <_>
          <internalNodes>
            0 -1 262 2.7498833835124969e-02</internalNodes>
          <leafValues>
            -1.2553000450134277e-01 2.7555802464485168e-01</leafValues></_>
        <_>
          <internalNodes>
            0 -1 159 2.6389751583337784e-03</internalNodes>
          <leafValues>
            2.4650533497333527e-01 -1.6030851006507874e-01</leafValues></_>
        <_>
          <internalNodes>
            0 -1 607 1.7414780333638191e-02</internalNodes>
          <leafValues>
            -2.4184982478618622e-01 1.1893680691719055e-01</leafValues></_>
        <_>
          <internalNodes>
            0 -1 97 1.3452362269163132e-02</internalNodes>
          <leafValues>
            1.4648894965648651e-01 -1.9857320189476013e-01</leafValues></_>
        <_>
          <internalNodes>
            0 -1 582 3.4906454384326935e-02</internalNodes>
          <leafValues>
            8.3626478910446167e-02 -3.5255363583564758e-01</leafValues></_>
        <_>
          <internalNodes>
            0 -1 34 3.8500022143125534e-02</internalNodes>
          <leafValues>
            1.2219311296939850e-01 -2.0519316196441650e-01</leafValues></_>
        <_>
          <internalNodes>
            0 -1 295 3.1817685812711716e-02</internalNodes>
          <leafValues>
            1.5900041162967682e-01 -1.5507028996944427e-01</leafValues></_>
        <_>
          <internalNodes>
            0 -1 342 4.7909777611494064e-02</internalNodes>
          <leafValues>
            -1.7576535046100616e-01 1.6765792667865753e-01</leafValues></_>
        <_>
          <internalNodes>
            0 -1 88 7.7111735939979553e-02</internalNodes>
          <leafValues>
            -5.0570290535688400e-02 5.8566492795944214e-01</leafValues></_>
        <_>
          <internalNodes>
            0 -1 429 4.6412672847509384e-02</internalNodes>
          <leafValues>
            -2.4245223402976990e-01 9.6385434269905090e-02</leafValues></_>
        <_>
          <internalNodes>
            0 -1 62 5.0084419548511505e-02</internalNodes>
          <leafValues>
            -7.4730418622493744e-02 3.1698343157768250e-01</leafValues></_>
        <_>
          <internalNodes>
            0 -1 280 3.6611326038837433e-02</internalNodes>
          <leafValues>
            -4.5401751995086670e-02 5.5759757757186890e-01</leafValues></_>
        <_>
          <internalNodes>
            0 -1 458 5.3985722362995148e-02</internalNodes>
          <leafValues>
            -1.2980298697948456e-01 1.6158311069011688e-01</leafValues></_>
        <_>
          <internalNodes>
            0 -1 339 3.3062525093555450e-02</internalNodes>
          <leafValues>
            -8.2367666065692902e-02 2.4259601533412933e-01</leafValues></_>
        <_>
          <internalNodes>
            0 -1 612 4.7604523599147797e-02</internalNodes>
          <leafValues>
            5.1041126251220703e-02 -3.9913213253021240e-01</leafValues></_>
        <_>
          <internalNodes>
            0 -1 90 1.2257777154445648e-01</internalNodes>
          <leafValues>
            2.0533278584480286e-02 -8.9731419086456299e-01</leafValues></_>
        <_>
          <internalNodes>
            0 -1 20 9.6676144748926163e-03</internalNodes>
          <leafValues>
            -1.8041154742240906e-01 9.9937841296195984e-02</leafValues></_>
        <_>
          <internalNodes>
            0 -1 146 2.9714044649153948e-03</internalNodes>
          <leafValues>
            2.0961782336235046e-01 -9.1838903725147247e-02</leafValues></_>
        <_>
          <internalNodes>
            0 -1 21 9.0299978852272034e-02</internalNodes>
          <leafValues>
            2.3114157840609550e-02 -6.7789882421493530e-01</leafValues></_>
        <_>
          <internalNodes>
            0 -1 414 8.5320509970188141e-03</internalNodes>
          <leafValues>
            -2.5686684250831604e-01 7.4585407972335815e-02</leafValues></_>
        <_>
          <internalNodes>
            0 -1 13 1.1618365347385406e-01</internalNodes>
          <leafValues>
            -7.6572410762310028e-02 2.7924659848213196e-01</leafValues></_>
        <_>
          <internalNodes>
            0 -1 512 1.1139725893735886e-01</internalNodes>
          <leafValues>
            4.2138349264860153e-02 -4.9314326047897339e-01</leafValues></_>
        <_>
          <internalNodes>
            0 -1 511 3.6219168454408646e-02</internalNodes>
          <leafValues>
            -3.6872565746307373e-02 4.9173057079315186e-01</leafValues></_>
        <_>
          <internalNodes>
            0 -1 568 2.9673859477043152e-02</internalNodes>
          <leafValues>
            4.8405945301055908e-02 -3.7557348608970642e-01</leafValues></_>
        <_>
          <internalNodes>
            0 -1 525 2.9941771179437637e-02</internalNodes>
          <leafValues>
            -4.9947049468755722e-02 3.6602512001991272e-01</leafValues></_>
        <_>
          <internalNodes>
            0 -1 512 2.6570815593004227e-02</internalNodes>
          <leafValues>
            -2.6364004611968994e-01 6.2919586896896362e-02</leafValues></_>
        <_>
          <internalNodes>
            0 -1 283 2.7343176305294037e-02</internalNodes>
          <leafValues>
            1.5241602063179016e-01 -1.0919143259525299e-01</leafValues></_>
        <_>
          <internalNodes>
            0 -1 225 2.3657316341996193e-03</internalNodes>
          <leafValues>
            2.0069096982479095e-01 -9.5578752458095551e-02</leafValues></_>
        <_>
          <internalNodes>
            0 -1 344 3.8208402693271637e-02</internalNodes>
          <leafValues>
            -7.1879707276821136e-02 2.8194591403007507e-01</leafValues></_>
        <_>
          <internalNodes>
            0 -1 459 2.9797377064824104e-03</internalNodes>
          <leafValues>
            -6.0400086641311646e-01 2.7013383805751801e-02</leafValues></_>
        <_>
          <internalNodes>
            0 -1 609 9.6851596608757973e-03</internalNodes>
          <leafValues>
            -1.7325647175312042e-01 8.5061773657798767e-02</leafValues></_>
        <_>
          <internalNodes>
            0 -1 397 1.2811422348022461e-01</internalNodes>
          <leafValues>
            -4.4110920280218124e-02 4.2853650450706482e-01</leafValues></_>
        <_>
          <internalNodes>
            0 -1 695 8.9189521968364716e-03</internalNodes>
          <leafValues>
            -8.0619657039642334e-01 2.0732633769512177e-02</leafValues></_>
        <_>
          <internalNodes>
            0 -1 354 1.2326559051871300e-02</internalNodes>
          <leafValues>
            2.6497742533683777e-01 -6.1104413121938705e-02</leafValues></_>
        <_>
          <internalNodes>
            0 -1 101 1.7042476683855057e-02</internalNodes>
          <leafValues>
            6.0790918767452240e-02 -2.6394692063331604e-01</leafValues></_>
        <_>
          <internalNodes>
            0 -1 391 2.5391722097992897e-02</internalNodes>
          <leafValues>
            -1.3464871048927307e-01 1.0584288835525513e-01</leafValues></_>
        <_>
          <internalNodes>
            0 -1 158 1.4910236932337284e-03</internalNodes>
          <leafValues>
            2.1309763193130493e-01 -8.0531492829322815e-02</leafValues></_>
        <_>
          <internalNodes>
            0 -1 450 2.0854599773883820e-02</internalNodes>
          <leafValues>
            -1.4183846116065979e-01 1.0695174336433411e-01</leafValues></_>
        <_>
          <internalNodes>
            0 -1 2 1.4829817228019238e-02</internalNodes>
          <leafValues>
            1.3237071037292480e-01 -1.1483296751976013e-01</leafValues></_>
        <_>
          <internalNodes>
            0 -1 276 1.0441739112138748e-02</internalNodes>
          <leafValues>
            1.4569035172462463e-01 -1.0484103858470917e-01</leafValues></_>
        <_>
          <internalNodes>
            0 -1 424 2.6733488775789738e-03</internalNodes>
          <leafValues>
            -5.5827432870864868e-01 2.7047054842114449e-02</leafValues></_>
        <_>
          <internalNodes>
            0 -1 176 9.3358494341373444e-03</internalNodes>
          <leafValues>
            9.9845029413700104e-02 -1.5495982766151428e-01</leafValues></_>
        <_>
          <internalNodes>
            0 -1 578 2.3151678964495659e-02</internalNodes>
          <leafValues>
            -6.7825041711330414e-02 2.3654225468635559e-01</leafValues></_>
        <_>
          <internalNodes>
            0 -1 396 3.7889592349529266e-02</internalNodes>
          <leafValues>
            5.1999010145664215e-02 -3.5514596104621887e-01</leafValues></_>
        <_>
          <internalNodes>
            0 -1 481 1.0931989178061485e-02</internalNodes>
          <leafValues>
            -7.8182500600814819e-01 1.8194677308201790e-02</leafValues></_>
        <_>
          <internalNodes>
            0 -1 19 4.6009242534637451e-02</internalNodes>
          <leafValues>
            -7.1654722094535828e-02 2.1037307381629944e-01</leafValues></_>
        <_>
          <internalNodes>
            0 -1 67 3.1983841210603714e-02</internalNodes>
          <leafValues>
            -4.7976877540349960e-02 2.9808112978935242e-01</leafValues></_>
        <_>
          <internalNodes>
            0 -1 555 4.3663602322340012e-02</internalNodes>
          <leafValues>
            -2.9793439432978630e-02 4.4427177309989929e-01</leafValues></_>
        <_>
          <internalNodes>
            0 -1 360 7.3053158819675446e-02</internalNodes>
          <leafValues>
            -6.9299191236495972e-02 2.0282110571861267e-01</leafValues></_>
        <_>
          <internalNodes>
            0 -1 50 3.9699316024780273e-02</internalNodes>
          <leafValues>
            -7.1439340710639954e-02 2.7055805921554565e-01</leafValues></_>
        <_>
          <internalNodes>
            0 -1 215 4.5228820294141769e-02</internalNodes>
          <leafValues>
            -3.1208714470267296e-02 4.6811059117317200e-01</leafValues></_>
        <_>
          <internalNodes>
            0 -1 599 2.4342190474271774e-02</internalNodes>
          <leafValues>
            -3.6297324299812317e-01 4.5031454414129257e-02</leafValues></_>
        <_>
          <internalNodes>
            0 -1 270 2.1175622940063477e-02</internalNodes>
          <leafValues>
            3.5580828785896301e-01 -5.5454008281230927e-02</leafValues></_>
        <_>
          <internalNodes>
            0 -1 589 1.2255889363586903e-02</internalNodes>
          <leafValues>
            -5.0941663980484009e-01 3.5673573613166809e-02</leafValues></_>
        <_>
          <internalNodes>
            0 -1 347 5.0318170338869095e-02</internalNodes>
          <leafValues>
            -4.5062795281410217e-02 3.9127567410469055e-01</leafValues></_>
        <_>
          <internalNodes>
            0 -1 121 4.5542143285274506e-02</internalNodes>
          <leafValues>
            -3.1292032450437546e-02 4.5814746618270874e-01</leafValues></_>
        <_>
          <internalNodes>
            0 -1 583 3.5260103642940521e-02</internalNodes>
          <leafValues>
            2.8464999049901962e-02 -5.5240881443023682e-01</leafValues></_>
        <_>
          <internalNodes>
            0 -1 231 6.1901912093162537e-02</internalNodes>
          <leafValues>
            -2.7090564370155334e-02 6.0769212245941162e-01</leafValues></_>
        <_>
          <internalNodes>
            0 -1 611 1.4661091566085815e-01</internalNodes>
          <leafValues>
            -2.9934868216514587e-02 4.1741845011711121e-01</leafValues></_>
        <_>
          <internalNodes>
            0 -1 266 4.7240070998668671e-02</internalNodes>
          <leafValues>
            -4.8515331000089645e-02 2.9283988475799561e-01</leafValues></_>
        <_>
          <internalNodes>
            0 -1 640 2.9823414981365204e-02</internalNodes>
          <leafValues>
            -1.2976965308189392e-01 1.1022865772247314e-01</leafValues></_>
        <_>
          <internalNodes>
            0 -1 76 5.5226486176252365e-02</internalNodes>
          <leafValues>
            -2.4354886263608932e-02 6.6516029834747314e-01</leafValues></_>
        <_>
          <internalNodes>
            0 -1 610 1.5127999708056450e-02</internalNodes>
          <leafValues>
            1.0534144192934036e-01 -1.5840663015842438e-01</leafValues></_>
        <_>
          <internalNodes>
            0 -1 697 2.0226504653692245e-02</internalNodes>
          <leafValues>
            5.8951042592525482e-02 -2.6207941770553589e-01</leafValues></_>
        <_>
          <internalNodes>
            0 -1 697 7.4124620296061039e-03</internalNodes>
          <leafValues>
            -2.5275981426239014e-01 7.8845538198947906e-02</leafValues></_>
        <_>
          <internalNodes>
            0 -1 321 4.5384136028587818e-03</internalNodes>
          <leafValues>
            1.6819451749324799e-01 -8.4616698324680328e-02</leafValues></_>
        <_>
          <internalNodes>
            0 -1 423 4.7169807367026806e-03</internalNodes>
          <leafValues>
            -2.1505321562290192e-01 7.0533446967601776e-02</leafValues></_>
        <_>
          <internalNodes>
            0 -1 81 2.5545967742800713e-02</internalNodes>
          <leafValues>
            6.7868128418922424e-02 -2.3606605827808380e-01</leafValues></_>
        <_>
          <internalNodes>
            0 -1 436 7.4807330965995789e-03</internalNodes>
          <leafValues>
            -3.0307266116142273e-01 5.3326305001974106e-02</leafValues></_>
        <_>
          <internalNodes>
            0 -1 361 1.3429933786392212e-01</internalNodes>
          <leafValues>
            -3.1768724322319031e-02 6.0531932115554810e-01</leafValues></_>
        <_>
          <internalNodes>
            0 -1 80 8.4113683551549911e-03</internalNodes>
          <leafValues>
            1.8598343431949615e-01 -7.3003776371479034e-02</leafValues></_>
        <_>
          <internalNodes>
            0 -1 369 2.9376275837421417e-02</internalNodes>
          <leafValues>
            -7.2889767587184906e-02 2.0120836794376373e-01</leafValues></_>
        <_>
          <internalNodes>
            0 -1 648 1.3093383610248566e-01</internalNodes>
          <leafValues>
            1.9514247775077820e-02 -8.6734557151794434e-01</leafValues></_>
        <_>
          <internalNodes>
            0 -1 317 4.7134343534708023e-02</internalNodes>
          <leafValues>
            -4.1869737207889557e-02 3.5423541069030762e-01</leafValues></_>
        <_>
          <internalNodes>
            0 -1 475 4.2856305837631226e-02</internalNodes>
          <leafValues>
            -3.6754783242940903e-02 3.4326425194740295e-01</leafValues></_></weakClassifiers></_>
    <!-- stage 11 -->
    <_>
      <maxWeakCount>83</maxWeakCount>
      <stageThreshold>-1.2489171028137207e+00</stageThreshold>
      <weakClassifiers>
        <_>
          <internalNodes>
            0 -1 167 9.0702623128890991e-02</internalNodes>
          <leafValues>
            -4.4282239675521851e-01 -4.7619048506021500e-02</leafValues></_>
        <_>
          <internalNodes>
            0 -1 603 1.1035150848329067e-02</internalNodes>
          <leafValues>
            -3.5422417521476746e-01 7.3491312563419342e-02</leafValues></_>
        <_>
          <internalNodes>
            0 -1 164 9.4289164990186691e-03</internalNodes>
          <leafValues>
            1.0566416382789612e-01 -2.8222799301147461e-01</leafValues></_>
        <_>
          <internalNodes>
            0 -1 358 2.0155092701315880e-02</internalNodes>
          <leafValues>
            -1.6170264780521393e-01 2.0038047432899475e-01</leafValues></_>
        <_>
          <internalNodes>
            0 -1 501 2.3063424974679947e-02</internalNodes>
          <leafValues>
            -4.7042959928512573e-01 9.7943156957626343e-02</leafValues></_>
        <_>
          <internalNodes>
            0 -1 465 1.4957268722355366e-02</internalNodes>
          <leafValues>
            -3.1202229857444763e-01 9.8205268383026123e-02</leafValues></_>
        <_>
          <internalNodes>
            0 -1 366 8.2792088389396667e-02</internalNodes>
          <leafValues>
            -1.4772298932075500e-01 2.2143092751502991e-01</leafValues></_>
        <_>
          <internalNodes>
            0 -1 257 1.9047597423195839e-02</internalNodes>
          <leafValues>
            1.4924356341362000e-01 -2.0044459402561188e-01</leafValues></_>
        <_>
          <internalNodes>
            0 -1 337 1.3102894648909569e-02</internalNodes>
          <leafValues>
            -1.6552224755287170e-01 1.0736953467130661e-01</leafValues></_>
        <_>
          <internalNodes>
            0 -1 187 2.6216951664537191e-03</internalNodes>
          <leafValues>
            2.6161605119705200e-01 -7.8584186732769012e-02</leafValues></_>
        <_>
          <internalNodes>
            0 -1 198 2.0550638437271118e-02</internalNodes>
          <leafValues>
            8.6369730532169342e-02 -2.3605073988437653e-01</leafValues></_>
        <_>
          <internalNodes>
            0 -1 95 3.5644840449094772e-02</internalNodes>
          <leafValues>
            -1.2586934864521027e-01 1.4364223182201385e-01</leafValues></_>
        <_>
          <internalNodes>
            0 -1 420 1.5931081026792526e-02</internalNodes>
          <leafValues>
            -3.9557042717933655e-01 4.4341087341308594e-02</leafValues></_>
        <_>
          <internalNodes>
            0 -1 189 2.5536528229713440e-01</internalNodes>
          <leafValues>
            -2.5574266910552979e-02 7.2218698263168335e-01</leafValues></_>
        <_>
          <internalNodes>
            0 -1 153 4.4184986501932144e-02</internalNodes>
          <leafValues>
            -3.3861935138702393e-02 4.7735983133316040e-01</leafValues></_>
        <_>
          <internalNodes>
            0 -1 2 1.1239537037909031e-02</internalNodes>
          <leafValues>
            1.7077200114727020e-01 -9.8218530416488647e-02</leafValues></_>
        <_>
          <internalNodes>
            0 -1 559 1.6349378973245621e-02</internalNodes>
          <leafValues>
            -1.0773804038763046e-01 1.3773834705352783e-01</leafValues></_>
        <_>
          <internalNodes>
            0 -1 588 3.0065726488828659e-02</internalNodes>
          <leafValues>
            -2.2614766657352448e-01 6.7266233265399933e-02</leafValues></_>
        <_>
          <internalNodes>
            0 -1 49 2.4324059486389160e-02</internalNodes>
          <leafValues>
            1.3189387321472168e-01 -1.2445383518934250e-01</leafValues></_>
        <_>
          <internalNodes>
            0 -1 640 1.5520803630352020e-02</internalNodes>
          <leafValues>
            -3.3662030100822449e-01 4.5692205429077148e-02</leafValues></_>
        <_>
          <internalNodes>
            0 -1 425 7.4524529278278351e-02</internalNodes>
          <leafValues>
            2.8354922309517860e-02 -4.7347870469093323e-01</leafValues></_>
        <_>
          <internalNodes>
            0 -1 302 1.5269527211785316e-02</internalNodes>
          <leafValues>
            7.7516876161098480e-02 -1.8665459752082825e-01</leafValues></_>
        <_>
          <internalNodes>
            0 -1 633 4.5473851263523102e-02</internalNodes>
          <leafValues>
            1.6707276925444603e-02 -6.8642377853393555e-01</leafValues></_>
        <_>
          <internalNodes>
            0 -1 661 1.9564896821975708e-02</internalNodes>
          <leafValues>
            4.0408924221992493e-02 -3.2048290967941284e-01</leafValues></_>
        <_>
          <internalNodes>
            0 -1 695 1.0152547061443329e-01</internalNodes>
          <leafValues>
            2.7057835832238197e-02 -5.2007055282592773e-01</leafValues></_>
        <_>
          <internalNodes>
            0 -1 342 1.1765493452548981e-01</internalNodes>
          <leafValues>
            -6.4055688679218292e-02 2.6408845186233521e-01</leafValues></_>
        <_>
          <internalNodes>
            0 -1 28 1.7287842929363251e-02</internalNodes>
          <leafValues>
            -1.4438688755035400e-01 1.0773519426584244e-01</leafValues></_>
        <_>
          <internalNodes>
            0 -1 61 3.0817350372672081e-02</internalNodes>
          <leafValues>
            6.6034376621246338e-02 -2.3748119175434113e-01</leafValues></_>
        <_>
          <internalNodes>
            0 -1 229 3.5330571234226227e-02</internalNodes>
          <leafValues>
            -8.7989352643489838e-02 1.7285242676734924e-01</leafValues></_>
        <_>
          <internalNodes>
            0 -1 494 1.4381326735019684e-02</internalNodes>
          <leafValues>
            1.1037103831768036e-01 -1.4924535155296326e-01</leafValues></_>
        <_>
          <internalNodes>
            0 -1 428 3.9357215166091919e-02</internalNodes>
          <leafValues>
            5.7104587554931641e-02 -2.9120513796806335e-01</leafValues></_>
        <_>
          <internalNodes>
            0 -1 687 1.3831496238708496e-02</internalNodes>
          <leafValues>
            -2.5058126449584961e-01 6.4737595617771149e-02</leafValues></_>
        <_>
          <internalNodes>
            0 -1 46 4.9279309809207916e-02</internalNodes>
          <leafValues>
            -5.4969076067209244e-02 3.0094757676124573e-01</leafValues></_>
        <_>
          <internalNodes>
            0 -1 379 5.7594722602516413e-04</internalNodes>
          <leafValues>
            4.0190395712852478e-01 -3.8752805441617966e-02</leafValues></_>
        <_>
